digraph Tree {
node [shape=box, style="filled, rounded", color="black", fontname=helvetica] ;
edge [fontname=helvetica] ;
0 [label="petal width (cm) <= 0.8\ngini = 0.67\nsamples = 98\nvalue = [47, 53, 50]\nclass = versicolor", fillcolor="#f9fefb"] ;
1 [label="gini = 0.0\nsamples = 29\nvalue = [47, 0, 0]\nclass = setosa", fillcolor="#e58139"] ;
0 -> 1 [labeldistance=2.5, labelangle=45, headlabel="True"] ;
2 [label="petal width (cm) <= 1.65\ngini = 0.5\nsamples = 69\nvalue = [0, 53, 50]\nclass = versicolor", fillcolor="#f4fef8"] ;
0 -> 2 [labeldistance=2.5, labelangle=-45, headlabel="False"] ;
3 [label="sepal length (cm) <= 7.1\ngini = 0.16\nsamples = 38\nvalue = [0, 52, 5]\nclass = versicolor", fillcolor="#4ce88d"] ;
2 -> 3 ;
4 [label="sepal width (cm) <= 2.65\ngini = 0.13\nsamples = 37\nvalue = [0, 52, 4]\nclass = versicolor", fillcolor="#48e78b"] ;
3 -> 4 ;
5 [label="sepal length (cm) <= 5.9\ngini = 0.36\nsamples = 11\nvalue = [0, 13, 4]\nclass = versicolor", fillcolor="#76eda8"] ;
4 -> 5 ;
6 [label="gini = 0.0\nsamples = 7\nvalue = [0, 9, 0]\nclass = versicolor", fillcolor="#39e581"] ;
5 -> 6 ;
7 [label="petal length (cm) <= 4.75\ngini = 0.5\nsamples = 4\nvalue = [0, 4, 4]\nclass = versicolor", fillcolor="#ffffff"] ;
5 -> 7 ;
8 [label="gini = 0.0\nsamples = 2\nvalue = [0, 4, 0]\nclass = versicolor", fillcolor="#39e581"] ;
7 -> 8 ;
9 [label="gini = 0.0\nsamples = 2\nvalue = [0, 0, 4]\nclass = virginica", fillcolor="#8139e5"] ;
7 -> 9 ;
10 [label="gini = 0.0\nsamples = 26\nvalue = [0, 39, 0]\nclass = versicolor", fillcolor="#39e581"] ;
4 -> 10 ;
11 [label="gini = 0.0\nsamples = 1\nvalue = [0, 0, 1]\nclass = virginica", fillcolor="#8139e5"] ;
3 -> 11 ;
12 [label="petal length (cm) <= 4.85\ngini = 0.04\nsamples = 31\nvalue = [0, 1, 45]\nclass = virginica", fillcolor="#843de6"] ;
2 -> 12 ;
13 [label="petal length (cm) <= 4.65\ngini = 0.44\nsamples = 3\nvalue = [0, 1, 2]\nclass = virginica", fillcolor="#c09cf2"] ;
12 -> 13 ;
14 [label="gini = 0.0\nsamples = 1\nvalue = [0, 0, 1]\nclass = virginica", fillcolor="#8139e5"] ;
13 -> 14 ;
15 [label="sepal width (cm) <= 3.0\ngini = 0.5\nsamples = 2\nvalue = [0, 1, 1]\nclass = versicolor", fillcolor="#ffffff"] ;
13 -> 15 ;
16 [label="gini = 0.0\nsamples = 1\nvalue = [0, 0, 1]\nclass = virginica", fillcolor="#8139e5"] ;
15 -> 16 ;
17 [label="gini = 0.0\nsamples = 1\nvalue = [0, 1, 0]\nclass = versicolor", fillcolor="#39e581"] ;
15 -> 17 ;
18 [label="gini = 0.0\nsamples = 28\nvalue = [0, 0, 43]\nclass = virginica", fillcolor="#8139e5"] ;
12 -> 18 ;
}